,T,GOOGL,MO,AIG,AAPL,BAC,BRK.B,CVX,CSCO,C,KO,XOM,GE,INTC,IBM,JNJ,MSFT,PFE,PG,WMT,BOND20
2013-01-31,-0.3006519641819555,-0.16927011007364087,0.2135420725817111,0.010976010682477756,0.34559851921760426,0.04411105402900525,0.024551380971584675,0.19035575363171275,-0.08475789443516098,-0.08854539619091856,-0.08287444914860019,-0.009177354097967733,-0.10462493279011444,-0.24154944742205703,0.38427567065500634,-0.06578838541138575,0.02759154003606582,0.19910210752814103,-0.013019714295350001,0.2778679804108507,0.4422875583032136
2013-03-28,-0.34923791757231104,-0.12534086082082974,0.042843649087888167,0.027477205680546152,0.3273611575585594,0.013803040422331474,0.1621623517285685,0.362602864516711,-0.15240128792608781,-0.1463557081130071,-0.02774653272672282,-0.2236471698000521,-0.11198904656642321,-0.13367492067395106,0.35219560378666376,-0.012406469459453702,0.01883542736564129,0.2695997646502489,0.18281815930181572,0.22220008414303638,0.30090060541709324
2013-05-31,-0.43025063457365204,-0.13809104862848381,0.1920199538386953,0.02861199017420321,0.2508156916070415,0.012995536810012252,0.1785005571539206,0.2906364474732933,-0.1479555978558355,-0.16744513027420665,0.035287576219851124,-0.2280600559094004,-0.08652109481228752,-0.057245013837203186,0.2935423880929207,-0.1363845172717044,0.12517753102323553,0.3489772781219696,0.1559044423615556,0.11885120973866685,0.3606324905476515
2013-07-31,-0.34041949913965674,-0.07855790915525755,0.1642577901331219,0.04690487112266807,0.21882460012361554,0.03860663458526325,0.30509099686320196,0.054623468597427664,-0.05387383218154087,-0.22248500714652794,0.15029079867931344,-0.08771298810275686,-0.13569148421684907,-0.005375203249887919,0.15590077013006515,-0.18597053589091941,0.09535872883621813,0.4009283561592816,0.20627914126373828,0.07241513749073226,0.20060516509875798
2013-09-30,-0.2978848299607992,-0.05587069566088553,0.07159161240362717,0.040683554928309176,0.28188297431592413,-0.010692516349974196,0.40686564732696573,0.13810833882707407,-0.053236805740979325,-0.19189036660315922,0.13833838097037357,-0.08126047780148943,-0.14177650868229605,-0.065928454196567,0.09124187720403937,-0.13387438250190195,0.12295731727365114,0.40158338010312233,0.0737664565979231,0.07348130554077353,0.1919141920062224
2013-11-29,-0.25232242611198086,-0.05366364528787778,-0.17265966860674278,0.0766301974405418,0.3373905505135908,-0.07460130059602162,0.3475100212700974,0.1508099872497122,-0.0772012093804231,-0.263834305184979,0.1617587915663659,-0.23552841871109567,-0.001113097882246785,0.09762291555569433,0.17209981432447405,0.04959170897543894,0.09637504395178144,0.46748724914949336,0.08076690454105329,-0.03657134422580632,0.12945223144870116
2014-01-31,-0.2698819871888633,-0.026526966861536473,0.1862487780779143,0.03942309635935339,0.3048280008791513,-0.04381059397752559,0.358513304946423,-0.010006212900254408,-0.12316727931162508,-0.15384903923436796,0.11077435982294613,-0.12474747597509087,-0.029191215122334448,0.08542927965766722,0.1792214919446712,-0.11563753420727109,0.12669037439486822,0.32256368464962243,0.07576540462038231,0.05530200505759458,0.052058524368271124
2014-03-31,-0.2680354886932053,0.07888404700516764,0.20764325612258308,0.0138146832749613,0.2371066751563352,-0.031092623180067083,0.269072037228753,-0.06753942467637052,-0.1700071077884516,-0.07242472641846565,-0.09068368709484517,-0.14790420765861748,0.05307285066020505,0.05950022496918683,0.14182797363609653,0.028183637233598863,0.17928354877022318,0.4173016438917292,0.007652826254651588,-0.1293044751648989,0.28364833647145393
2014-05-30,-0.2431063501141331,0.02188823054866808,0.24602488162908703,0.01906094351927498,0.2762958302990173,-0.0426043494814226,0.30327747752591594,-0.039110311382490985,-0.1613925084776804,-0.07730426403919534,-0.07608999820933743,-0.16330486806318648,0.03696442125157275,0.04146076020387138,0.1250424967921751,0.06537680472802303,0.18843429003388804,0.387459841280897,-0.010658336817747959,-0.10886360111931777,0.21114860989209544
2014-07-31,-0.31055913609255786,0.04998541719840316,0.29027729440257816,0.005879250312860376,0.27193232634239206,-0.07945548432800784,0.2824651560180963,0.028527730101100414,-0.1412115732347966,-0.011576538182525057,-0.02319085162196493,-0.23131459328267379,0.0669556683674013,0.07340976422408994,0.045610427235831225,0.10584281617835574,0.13164584833615134,0.37265770675454357,-0.08088724113440433,-0.12959388923162612,0.2825999016366977
2014-09-30,-0.2400051676473653,0.049618490632177256,0.27716354592962633,0.023774871828284055,0.28963777725965584,-0.10304580704233712,0.28520410751172764,-0.00863946641515395,-0.1622893823860969,0.006406860114452915,-0.13607474974626832,-0.2565049399371367,0.06647556659968903,0.11232529013572548,0.10121538374766402,0.05493794868638568,0.13622780064772383,0.4291821401645784,-0.06456517735987184,-0.14945136009851093,0.28840626737487407
2014-11-28,-0.2052290424370239,0.05754750580564026,0.5902781805472566,0.06300827293201222,0.23039306210665073,-0.03563121715456549,0.1996286143995173,-0.1629663266466305,-0.19804949338250655,0.07661416691571075,-0.3731817595994946,-0.11763984740398613,-0.01262344149136868,0.11975131465582274,0.10425625809911686,0.06924908255145784,0.06096380100830228,0.3747630355451365,-0.1394534446174373,-0.03187097171701203,0.33019224988323254
2015-01-30,-0.27499287780807935,0.04266984849532188,0.6735531553129549,0.12588204187551374,0.1968655388509261,-0.020149577882080508,0.21744682864310622,-0.1454794691480487,-0.18821056923220478,0.08956881126665985,-0.4494488089529157,-0.002292794248707739,-0.1049062176822889,0.13491469149694044,0.0677263874503416,-0.05001590562266747,0.0049960041295507894,0.3927838737915101,-0.15451173937571097,0.030664208859370056,0.4129365697803788
2015-03-31,-0.2432127788750965,0.036007637791646216,0.5546635267128683,0.12496631369184283,0.2023218074995758,-0.05553348569428856,0.2080267892675857,-0.1466437082435859,-0.1779837954615948,0.10505156521453421,-0.3640648027788427,-0.023491235872786082,-0.08934228671067873,0.11525500287540998,0.061341227359556945,-0.02029623961512456,0.03993043357815528,0.463126596185374,-0.1675770400532899,-0.02269231968838016,0.40014679281698934
2015-05-29,-0.21887087629439228,0.027657451868237384,0.4476601381246279,0.08026497676464797,0.201618957951274,-0.09835220169590679,0.26045413879514207,-0.12709647771823362,-0.19966663272173626,0.09628061210774144,-0.38250463175771143,-0.10326752103942008,-0.009045189829646022,0.07087078700601902,0.12013559101711391,0.006896753322934018,0.18355199739309735,0.5369542955187808,-0.21890179996319786,-0.09763295092929206,0.42299258207979434
2015-07-31,0.00055822276229038,0.04943743241998051,0.3625180102254282,0.10399908777470586,0.20067986744171243,-0.08544928393879074,0.19139967518133907,-0.3122131252820729,-0.13759623221210515,0.06813216380527638,-0.44668778952372684,0.17201861829656345,-0.022447594471343424,-0.01499597011235737,0.023313513972276358,0.12937799578723858,0.23338914503084013,0.5398996826543655,-0.31606748476320146,-0.0614287361130261,0.32216280106449074
2015-09-30,0.03465788884869291,0.054302956630970484,0.2719709863244732,0.13766166248616263,0.21546448174613217,-0.03919638809619179,0.23576977650010172,-0.3760079458092115,-0.15392180266866234,-0.010614462609926961,-0.4854068940801981,0.2576247899027526,-0.004309948217740107,0.062020449308754735,0.029665825512380326,0.24332204479196048,0.15103579206633377,0.41081461533280605,-0.249439087488122,-0.14368938798244665,0.3582746475008758
2015-11-30,-0.05875494501257647,0.024010935504073006,0.3032408553282753,0.13191210021562325,0.1848530641886513,-0.0055739575496229765,0.19025900791892578,-0.3070711733254454,-0.15821234595879208,-0.038371417413954736,-0.46342235982754604,0.07325910089429834,0.15932175443476518,0.12585962782900612,0.04257568587692099,0.22195573226899779,0.09895330643058384,0.372073559290602,-0.22569900524721853,-0.11488935582033637,0.44371982997466697
2016-01-29,-0.09259037340305068,0.06552776275420875,0.43485257050879184,0.09861274327530319,0.08673692604084521,-0.0005009641231265832,-0.012621885524851774,-0.12456554878828671,-0.10785248433040531,-0.03391489744928291,-0.6374362321180107,-0.27863654759858275,0.33042524961077974,0.09295276889089495,0.11208584383268659,0.3665184997294751,0.12339423230298334,0.2541080314199092,-0.14610466723405585,-0.005450371058202224,0.4744593432618928
2016-03-31,0.10319347514689559,0.0802706101545108,0.42101120765178984,0.1737764033765248,0.07409126336812874,-0.03057583212125814,-0.017604857308112867,-0.1988792050963372,-0.0010655697906387831,-0.04648314970466842,-0.6172110476156774,-0.23714062688556822,0.20529072936732728,-0.003556634878508582,0.050907671532789064,0.5721615989099821,0.1221187133156976,0.06598066928500068,-0.17393708293489196,0.03100864439443352,0.4266430198324791
2016-05-31,-0.03590326622552626,0.10098807691438484,0.41560958385928387,0.2820684966125085,0.058826759968814264,-0.017088218052481854,0.1491978758469859,-0.14277654739896553,-0.02894240052148685,-0.11261671332045763,-0.7613594931104263,-0.29786180197707895,0.29848276499941306,-0.022850425002971683,0.06119580952882238,0.7452771893271544,0.07859572722258693,-0.024581011137874476,-0.2432000220615149,0.0274486235947076,0.4694889909340032
2016-07-29,-0.05497776513988522,0.11261912448037222,0.4844283070322683,0.2779232412797453,0.059030796628845826,0.05183009738122754,0.09355079556284522,-0.11272194321641993,0.007740043964503245,-0.1919821473881943,-0.8600129768769061,-0.24330307357069553,0.2680649125129431,0.024463407296696743,0.039609360090703385,0.6467495439933759,0.03557250612257468,0.010534901939160948,-0.1727672537585444,0.10628792309340121,0.4173601985718454
2016-09-30,0.0638246340436966,0.0933427780873769,0.4795320454108764,0.3278729067211812,0.012618963047314285,0.11412179305854823,0.23412939320393697,-0.24086418134587298,-0.06171268225830696,-0.1763315762980999,-0.8943882570066859,-0.09438155676711721,0.3235852407841389,0.12506404352426542,-0.010421863064734456,0.38180194240360105,-0.04394892434379788,0.001174846443006838,-0.11133279308345795,0.11175760258949272,0.3645556448505065
2016-11-30,0.006990069284518447,0.1200119618433888,0.5377743087298807,0.3564910299758633,0.012639460415254874,0.16879866833071952,0.10967153676611886,-0.07361746627262523,-0.04497366899190004,-0.19554482052596406,-0.8073945359873282,-0.14468913641114267,0.21428873653846497,0.06488347087044086,-0.024829413641973292,0.392204705857559,-0.03718313163062744,-0.06743828551440735,-0.09437939163074832,0.20697800256086094,0.29931789943353593
2017-01-31,0.15154436773677185,0.11963374118453421,0.5070305695509048,0.324167557059874,0.015747804584920935,0.20969751806626485,0.17039610013931447,-0.02656211675131323,-0.0497383618531826,-0.12166180205081797,-0.72934394914556,-0.21889822558102381,0.17750406370919403,0.05696938566815089,-0.06913854131607876,0.3349988348726791,-0.06966977225271831,-0.1459517214637447,-0.10999007775954538,0.16757080822645323,0.305693817374818
2017-03-31,0.1517401757915532,0.10061983127255779,0.5392105331077993,0.32757098260091305,0.020301690341406015,0.233983199348355,0.17379701508510587,-0.05490438770564142,-0.05858648323430746,-0.14079439733431792,-0.7519272489426796,-0.23711162518926,0.1629393094111546,0.06511022952083419,-0.029185095385954273,0.34244881287339407,-0.06086672921730578,-0.15993154653321245,-0.0699974462893298,0.14079602518395168,0.3047871552949114
2017-05-31,0.09167788062509011,0.16935642010521187,0.3994522852522424,0.1594739366857052,0.032893141798159435,0.18175585208494383,0.20320297584073965,-0.10194588461652797,-0.012940483678051189,-0.041122965102646666,-0.6693287331994227,-0.0941617411264527,0.13859764190434182,0.04636995939261408,-0.1393359467982013,0.42549660524788996,0.03396986501514668,-0.2124640836266276,-0.12117664120696102,0.22040369184082667,0.28982622356192683
2017-07-31,0.07042689844991312,0.14867023465921483,0.4155714037324479,0.1454743248212905,0.02322158719337038,0.16803506914886332,0.19021001598444096,-0.14572614088953398,0.008343842481735876,0.018596132622312495,-0.6091494831651237,-0.03252668068624472,0.08031255183745108,0.0059220903679741595,-0.11865557391423434,0.548571641442232,0.06295408065960961,-0.24336286325967554,-0.16608816525215248,0.1582598439307615,0.27093918983533727
2017-09-29,0.10459455992219152,0.13329693648085608,0.17443430543060362,0.06899608282660481,0.056075316512077235,0.1524116066934828,0.40796386594148676,-0.13061695229206718,0.032786427526694896,0.012769925398821063,-0.38149981853673914,-0.05747613009520925,-0.04051556907715687,0.030963785153106074,-0.20516510977619107,0.5294539995288164,0.11446134760714187,-0.18897522366628058,-0.12803803824154986,0.04498823410914088,0.2690904485540588
2017-11-30,0.20001563315706664,0.13571659231403815,0.23341980600724474,0.09777215036864544,0.06605106175591147,0.17647424520920826,0.41732944298010255,0.040841128673873274,0.09351375618237177,-0.1129445025765426,-0.402230198251952,-0.10659362952254267,-0.10499031499746618,0.0802273938591198,-0.2626483549814168,0.29368941299873896,0.09065843941316298,-0.06720821725617841,-0.1695075888277341,0.07227995121739063,0.22813379227694672
2018-01-31,0.2034375288020693,0.13458557148351116,0.22910180980820788,0.09722379990410392,0.08202566951160911,0.11209235507041095,0.43536828106255543,0.02478312571146526,0.03391852949115649,-0.06838340091158926,-0.467330537785093,-0.08647952495860416,-0.08760029332737934,0.0923795304487669,-0.23922050508649734,0.28996753918773593,0.1205329212259888,-0.05495672359182601,-0.1802745919942855,0.1080892770552776,0.2207396388924038
2018-03-29,0.262287201434069,0.052260659322570145,0.18789702757089796,0.10114349945561732,0.1670306844619979,0.20859040273450116,0.2811329905529609,-0.046894440464177914,0.10897413125886772,-0.0827886230941237,-0.3625941952572499,0.018967407791735516,-0.13425347330360263,0.0733975932713091,-0.28243177135464426,0.2734842027923331,0.13022847592279566,-0.07427141379474012,-0.298758332555043,0.0533416535730403,0.3632563196808477
2018-05-31,0.18400515337534729,0.000739996006963353,0.17868114627902953,0.13159324620917998,0.1469643765634313,0.23424976282553167,0.22647310239364601,0.12105764009373372,0.15907472178674437,-0.1686392099578093,-0.31166923588966733,-0.048216459726839335,-0.10663779218682194,0.09304685027798,-0.3872994675025496,0.2160843352239244,0.1748448304735048,-0.016520119831514694,-0.38794833612803525,0.09222854392661745,0.4678869157875752
2018-07-31,0.1827132288956891,-0.0036878947493763133,0.23057690013459084,0.04401555300464163,0.23599633314813354,0.26265947612685775,0.05897377504681199,0.183531125912947,0.10567053875208572,-0.10130145888992508,-0.1230381888689154,0.01096494548695104,-0.2403161314146845,0.021615838036372854,-0.3406056782584711,0.03545371278235883,0.19250715982084854,0.002879536444394769,-0.3208663756227332,0.04229208893088489,0.5199655152804905
2018-09-28,0.18183897986147995,0.017405540334998706,0.21277231923643697,-0.014329413011564335,0.15368445592143531,0.18847220369539475,0.125182262093755,0.1540250853063978,0.0697316014306245,-0.018428772150562683,-0.018906495189179147,-0.023885799185537484,-0.2737482097844937,0.0534177714562425,-0.30704181156330707,0.03525328535717051,0.23626573012081092,0.04812024571972259,-0.30894946381022276,-0.005277879854982262,0.49439836401537585
2018-11-30,0.1661390407702028,-0.06582641541075171,0.1767413841145954,-0.09060643441529526,0.15129118991993754,0.26042580526593934,-0.013761211154238744,0.11885686885279455,0.1483697040202801,0.01330149885936504,0.23163261786362915,0.10085630286464864,-0.38934189717325396,-0.010261277456382249,-0.29456579186345266,0.011541450961659408,0.2511686565908824,0.0050613821254926784,-0.2286513112968663,-0.08198471469991112,0.5396131512606999
2019-01-31,0.1333187428592774,-0.16864689740169286,0.19631205544718572,0.018435928104424477,0.12432128218961164,0.17479429603571092,0.0932375052704113,0.3051034752440412,0.03522744378640464,-0.032093999480223186,0.15446649430642614,-0.2948788776161275,-0.32035083633601796,0.0029363230768625925,-0.31518023255663746,-0.17401877958904213,0.3607012058050269,0.21962870681829555,-0.24556885640533113,-0.03481531999756411,0.7670703404388871
2019-03-29,0.18048764872038325,-0.08806110816978696,0.12499155091809667,-0.1456932597386657,0.01330576322317105,0.19905873941945737,-0.12217403209291677,0.2024740687114373,0.26215537325303834,0.21909174068990828,0.05271849364370194,-0.27141727839726665,-0.21904973678399875,0.0192694801978804,-0.30007438419211113,0.004555790745119243,0.3368872306060288,-0.1254344449793104,-0.15705395624337853,0.011770146636159344,0.802192173832971
2019-05-31,0.17334270035504726,-0.04270220930447717,0.05175131577699844,-0.21482671163100664,0.00236338808455869,0.38478579575558325,-0.2962861325431958,0.1150791243501898,0.2692417423165659,0.13955591426004738,0.15461481147230965,-0.15540455374811588,-0.21615852422087103,-0.0330560207850037,-0.30821267576886086,-0.05292372180014569,0.35607148847962716,-0.07158573486765746,-0.1288583191693954,-0.004589277467789652,0.877797600455489
2019-07-31,0.19388623657296625,-0.11704623285421478,0.03235397592303415,-0.18511605547264912,0.009833699850468646,0.3745264211454954,-0.35107332857836443,0.08964551517319776,0.2503398761954822,0.15745476572737635,0.1490035741094654,-0.15998492139126347,-0.222740978924184,-0.08352319594603926,-0.3025051127094733,-0.12309187922640683,0.44157245319256583,-0.002343832960614134,-0.11267161587505979,0.0273851416845108,0.934095494363567
2019-09-30,0.23909567614089774,-0.02697773939356522,-0.05595511229917957,-0.15186743325448734,0.05652482954787485,0.6293932650519223,-0.56377795646752,0.06337876137403149,0.38985180271892284,-0.11302228668101191,0.3521144299914689,0.0006386758023068527,-0.20347355129403635,-0.17723155178963737,-0.3537718103609401,-0.06889167664651968,0.2837079141263611,-0.05147435133161892,-0.12461910044552155,0.025449107095169142,0.8509081081149369
2019-11-29,0.31902433096275945,0.02511325399638584,-0.08877740315008206,-0.13166457301636383,0.07739425439881556,0.564188184329665,-0.4783807739770114,0.0633382445563146,0.3299155264649812,-0.08384391559243344,0.2668008210158459,-0.08105403487375756,-0.17608635394499436,-0.07869025496278569,-0.3691450235992988,-0.08838444017674904,0.23032976887778345,-0.0021771857610433172,-0.10106767382123986,0.05380942439238625,0.7493578238806895
2020-01-31,0.30342642061227343,0.055500912638117544,-0.06373538396544569,-0.18242151548172353,0.09894132508146779,0.5012105304007278,-0.41193235802449396,0.10860984805119746,0.20328532858628603,-0.06173551173171344,0.2457164265172904,-0.159416676123371,-0.12816261986235283,-0.06842251962678497,-0.30291884099368416,0.03235800192377368,0.26332025760481514,0.007843308104567308,-0.16124176751071462,0.054358905099814385,0.6654159286998462
2020-03-31,0.23553581565531237,0.056938862599703224,-0.1678337268047532,-0.24097716308130807,0.017714579619240126,0.6005349786469655,-0.38378752324116616,0.041174226664234266,0.17411196663963974,-0.10944584885060722,0.16837737826369856,-0.08090433166717778,-0.09260967106566816,-0.04292398207476959,-0.29796132700211697,0.19238147505988443,0.3166683114223446,-0.12392875207131643,-0.07402117704449103,0.01922639425042701,0.7917295140818055
2020-05-29,0.292779137283683,-0.027826065432975892,-0.10700688936245827,-0.23561387787928992,-0.01330386477650674,0.6131480826273908,-0.43565951596936686,-0.03338348827664696,0.2257095860487035,-0.10365080309347295,0.3151270297942172,-0.05868632872114329,-0.08988315550307018,-0.03329562537176724,-0.3088471814312143,0.1170254640308555,0.3970311638878275,-0.14810581417292806,-0.1103953064708014,0.006265249889446092,0.7385722028993629
2020-07-31,0.2328873259023545,-0.025697226823096504,-0.03992994957770332,-0.242471243687644,-0.046227279072243964,0.35483614448685796,-0.2810183394354404,0.19703071176576484,0.26652929999656316,0.06457661127099901,0.2320903301902898,-0.24389429495142162,-0.08590982639888875,0.009030379010707938,-0.288543691778379,-0.01806380997938795,0.47491418578060035,-0.19741850712348344,-0.1564450326324341,0.08454569653103962,0.7091785165243535
2020-09-30,0.15940695296047666,-0.13170937850776887,-0.07376554610189064,-0.23071689804656617,0.04094816163496049,0.3339262767398492,-0.1941053559327496,0.2734523716893402,0.190850700631565,-0.039522943646095834,0.27297118814152066,-0.32586120373831684,-0.04316697781714614,-0.06681640593868157,-0.20216737235996,-0.13046847559539185,0.5438863930424186,-0.028650349499715344,0.01152677706268146,0.15345814858068155,0.48652393670049315
2020-11-30,0.14133262640140556,-0.0395998675700546,-0.18554425398272895,-0.1324450985667523,0.040298651787228676,0.4707379904637036,-0.16731429908519485,0.24881403197110524,0.18535996727800208,-0.2851843810446618,0.1939587205040721,-0.2791742002922541,0.04904510247372518,-0.11245257431257459,-0.2924512713590613,0.005799189110056078,0.5003016654172195,-0.03339392688122815,0.10849841539823293,0.1475919097284573,0.4358216025608089
2021-01-29,0.09765376070241831,-0.06987638886732885,-0.20564053438549157,-0.16170427554070432,0.08904689641665811,0.4893535823842679,-0.1884413969107286,0.23664334294763106,0.2315281670039562,-0.2571293595527347,0.29313437348463844,-0.23590954832431277,0.05527046332860837,-0.13210227540136882,-0.32410814331909166,0.037088948747869256,0.47395754227630393,-0.05847118055652735,0.04826961041779182,0.11313531776338968,0.46830109738469544
2021-03-31,0.012171630864362775,0.0007723703738345888,-0.16933737976654434,-0.028063204218700823,0.026552638711768824,0.592131636610999,-0.22062181109415951,0.24135888113516715,0.10978021843236327,-0.2504772643182067,0.0484718290456627,-0.21954966079436508,0.046346211643866805,0.013864308548331582,-0.49749066307739503,0.08156012701759748,0.5464304895982001,-0.006765256286811665,0.1742711676680188,-0.008193775176866074,0.506787505082888
2021-05-28,0.079480974852504,-0.009248804879394968,-0.13533409681940792,-0.10016362218067652,0.018959811502329862,0.6398703362737249,-0.2881761914027637,0.2386588003397691,0.22971842737051315,-0.4488843943848891,0.29800663991356474,-0.20839552550485618,0.10334560689264109,-0.04541690718243004,-0.4306249346458617,-0.047489770433768855,0.7172430433329181,-0.041429373943186756,0.13394265953756676,0.014261462409641448,0.2816758589522701
2021-07-30,-0.08497879290624193,0.034684689069092806,-0.11300577555400508,-0.045559613340930664,-0.030158275655614828,0.5288309961087672,-0.19460649937042035,0.13530879600620038,0.18936642458188763,-0.20817279408118136,0.18949149931495843,-0.21440854406673776,0.056563521784845375,0.02272354123973753,-0.42245555685382563,-0.11382644141844478,0.6446826606072478,0.026720841647568702,0.22665534707608426,-0.008418308637435845,0.3805622844484152
2021-09-30,-0.06840053518620431,0.05960688994927969,-0.11943159748212352,-0.05083090101867299,-0.03995116110850908,0.5712495519666815,-0.2507496502671269,0.133860194959347,0.18506353116546084,-0.20506056753581947,0.15186275757703283,-0.24044240397239647,0.05430130580630996,0.026930870887120185,-0.4179523769208051,-0.09083551655734758,0.6645920963724793,0.026617146433647664,0.23316882646095585,-0.012984235747807556,0.3893857742183649
2021-11-30,-0.06209919461399235,0.06603382255926112,-0.1000578067288396,-0.019032018418978065,-0.02091280903822651,0.4222024018669346,-0.178310116532017,-0.09169574749445783,0.030434258670029,0.04769676066827551,-0.0480306112145091,-0.09305237412377886,-0.023955075150767155,0.175215988945261,-0.30935069442931107,-0.2370372415913066,0.4251142254333199,0.15042070315723782,0.3182996379996879,-0.01198463425046153,0.5601005242867674
2022-01-31,-0.15405438565902163,0.057408236962434564,-0.11595682534255898,0.01472389507292298,-0.0016886475559847803,0.29698707675516467,-0.10009516085716984,-0.07810900544698508,0.119989714920795,-0.04989866922142184,0.014523416817644304,-0.05729193431382121,0.0062065958850292795,0.16311631921808847,-0.2628308449470168,-0.1691357645018075,0.3903290594759028,0.12551502059657016,0.41182692704873697,-0.052252654159964516,0.44068762925259275
2022-03-31,-0.197529302438798,-0.008199458635918195,-0.09910308163230425,0.028374391237289458,0.0629617196328734,0.20697067671876482,0.14588642107430874,-0.059438791076037105,0.08811648540659156,-0.10285956122968597,0.0514401689182887,0.1505553149204702,-0.020059594134622525,0.12049558379132462,-0.2796715127470796,-0.20676810567261508,0.29089922893732706,0.02268452073497134,0.3893048032101853,-0.06834247828332271,0.4842825712678599
2022-05-31,-0.11325956833443745,-0.17897904356648123,-0.015155245617685378,0.1013739850355862,0.05048215880681812,0.11682165264554081,0.1347503655198037,0.01412574876692877,-0.029772461712443198,-0.20072295560083792,0.006186664805841669,0.13656193739622483,-0.0120109883144047,0.07159367674163093,-0.1181029793500507,-0.12292209301404135,0.3827457221993418,0.03038662858872884,0.40880599646433036,0.028925268403226928,0.30816553013651693
2022-07-29,0.06726368052308378,-0.11117171497798488,-0.1176332682299596,0.012505960563302105,0.04030280688850728,0.08725340426549222,-0.042067662460362046,-0.06570497763566424,-0.004778645552473115,-0.2543034391075841,0.18613629787284405,0.2440228625224628,0.037139149976213016,0.06956515772401974,-0.07976781594170523,-0.12029932380996508,0.40060583115536214,0.12535765652873912,0.2629529583428098,0.014651599174302988,0.247969482178803
2022-09-30,0.03151495731975085,-0.13777481600503802,-0.06134213590209415,0.014714960386414311,0.05892968285652234,0.19704107851506877,-0.1386980102962582,-0.0435367554573211,0.004131204156463822,-0.32011906851288296,0.2009071090454787,0.2538443308645958,0.04194990380646525,0.01164187424944781,-0.018508858413231164,-0.12973523081995805,0.3658708447292801,0.09561537978405664,0.20196719299704768,0.074051037101483,0.29753531959470114
2022-11-30,-0.028780359698475637,-0.1339572592008512,-0.06204641552004441,0.05334652758944604,0.06164853957897772,0.22102161520643104,-0.042649875644935206,-0.0318611860711699,0.00021670915308788573,-0.3534236734723131,0.04342346183922306,0.22349549994415072,0.05204051309392388,-0.10673624376735213,-0.0062252471894543296,0.18590569035459195,0.2783337382760296,0.024084249160326133,0.20990763672745105,-0.002392720591074182,0.4146488002321106
